21 10
e -0.6492 0.5604 -1.4871 2.2861 -0.1648 0.3766 -1.0364 0.7954 -0.1314 -0.3947
b -0.2989 -0.3354 -0.4356 2.5238 1.4304 0.2022 0.2310 0.8564 -0.5099 0.0260
w -1.0285 1.8324 -0.7586 0.6710 -0.4017 -2.6855 1.0402 -0.3367 -1.5222 0.6372
v -0.5530 0.1876 0.8255 -0.8202 0.3394 -0.4781 0.6821 -0.0398 1.3670 0.2104
p -0.3334 -1.2211 -1.5921 0.7695 -1.6386 -1.3540 -0.8977 -0.0882 1.7025 -1.7549
d 1.3749 1.3037 -0.1133 -0.3787 -0.7518 0.9987 -0.4493 0.9568 0.1256 1.4863
y -0.0431 0.3491 0.0806 -1.1404 -0.6336 -0.8175 0.0370 0.1832 2.4182 -0.0664
o 1.3500 1.0911 -0.7620 0.7549 -1.2594 -0.9685 -0.4608 0.5599 2.2321 1.0903
r -0.6622 -0.4580 -0.3320 -0.6618 -0.9768 1.0376 0.3862 -0.7274 0.0812 -0.2719
u 0.2330 -0.2156 0.6429 1.0444 -0.6095 0.3757 0.6964 0.3824 -1.7486 1.3788
t 0.0314 0.9499 -0.5916 0.1243 0.7346 1.7311 -1.5956 0.0047 0.6823 0.3138
n 1.5219 1.2783 -0.3330 2.3340 -0.9571 -0.6471 0.8050 -1.1648 -1.1847 0.1965
q 0.2433 0.6136 1.0316 0.8042 -0.6321 1.1187 -1.4775 -0.5279 -1.1523 1.3975
s -1.1373 0.7264 -0.1866 -0.4313 0.5707 1.0883 -0.4288 -0.7930 1.7604 -0.7902
z 1.2168 -0.2319 1.2385 1.1898 1.2204 0.3738 1.1647 0.3873 0.8980 -1.4375
m 0.0862 1.2211 0.8065 0.9587 -0.1652 0.5459 0.8926 0.2615 -0.2117 -0.6786
a 0.8754 0.0578 -0.8611 0.3713 -2.1589 -1.8951 -0.3786 -1.5617 0.3118 1.2721
g -1.7822 -0.5517 -1.8580 -0.1105 1.0260 -0.1787 1.2891 0.1608 0.5217 0.7108
f -0.9288 0.3296 0.7078 0.2389 -0.7673 1.1955 -1.8013 1.2926 1.7672 0.7493
x -0.4291 0.2971 -0.0567 -1.8687 -0.4219 -1.6488 -0.3509 3.0136 0.2585 1.2471
l 0.7468 -0.2344 -0.8614 2.6548 0.5346 1.1617 -0.5466 -1.4717 1.2407 -0.4137
